<?xml version="1.0"?>
<opencv_storage>
<cascade>
  <stageType>BOOST</stageType>
  <featureType>LBP</featureType>
  <height>40</height>
  <width>40</width>
  <stageParams>
    <boostType>GAB</boostType>
    <minHitRate>9.9900001287460327e-001</minHitRate>
    <maxFalseAlarm>3.0000001192092896e-001</maxFalseAlarm>
    <weightTrimRate>9.9900001287460327e-001</weightTrimRate>
    <maxDepth>1</maxDepth>
    <maxWeakCount>100</maxWeakCount></stageParams>
  <featureParams>
    <maxCatCount>256</maxCatCount>
    <featSize>1</featSize></featureParams>
  <stageNum>18</stageNum>
  <stages>
    <!-- stage 0 -->
    <_>
      <maxWeakCount>5</maxWeakCount>
      <stageThreshold>-1.0858745574951172e+000</stageThreshold>
      <weakClassifiers>
        <_>
          <internalNodes>
            0 -1 93 -34078723 -6563427 1593954775 -543957519 -368706307
            -291790456 -876262915 -2111032</internalNodes>
          <leafValues>
            -7.9075944423675537e-001 6.9841271638870239e-001</leafValues></_>
        <_>
          <internalNodes>
            0 -1 67 521355071 2144418141 -783049731 -1110091493
            -1131825730 -1078427375 -1114959943 -1736441600</internalNodes>
          <leafValues>
            -7.6577043533325195e-001 6.9688498973846436e-001</leafValues></_>
        <_>
          <internalNodes>
            0 -1 50 -1159766795 -11382317 -184495907 -2189325 -376907336
            -72840311 1256250748 -34021580</internalNodes>
          <leafValues>
            -8.2390856742858887e-001 5.9572434425354004e-001</leafValues></_>
        <_>
          <internalNodes>
            0 -1 31 -1894653449 1868368277 -2129116161 -1380103734
            -1417442311 -75399014 700547245 -863485756</internalNodes>
          <leafValues>
            -7.5782483816146851e-001 6.4699321985244751e-001</leafValues></_>
        <_>
          <internalNodes>
            0 -1 62 939491327 -23340773 -243150337 -84094629 -1450443777
            -343233814 -877930019 -61541388</internalNodes>
          <leafValues>
            -7.7206236124038696e-001 6.3677203655242920e-001</leafValues></_></weakClassifiers></_>
    <!-- stage 1 -->
    <_>
      <maxWeakCount>5</maxWeakCount>
      <stageThreshold>-1.0567492246627808e+000</stageThreshold>
      <weakClassifiers>
        <_>
          <internalNodes>
            0 -1 98 -1051785 -36176433 -448511541 -270536817 -891557392
            -115609113 1571416316 -69206017</internalNodes>
          <leafValues>
            -7.5490719079971313e-001 6.1273211240768433e-001</leafValues></_>
        <_>
          <internalNodes>
            0 -1 23 1843392511 -963970146 1965554907 -274083750
            467401727 -1882813533 -642790665 -805307469</internalNodes>
          <leafValues>
            -7.2346818447113037e-001 5.6219792366027832e-001</leafValues></_>
        <_>
          <internalNodes>
            0 -1 30 1431863293 -134760545 -585527939 -2155265 2109467118
            -6682424 -92078337 211048976</internalNodes>
          <leafValues>
            -7.8614246845245361e-001 5.6069570779800415e-001</leafValues></_>
        <_>
          <internalNodes>
            0 -1 48 1427339449 -579761915 -517351937 -8216312 2064691371
            -1112831860 -108290417 1828984832</internalNodes>
          <leafValues>
            -6.8065530061721802e-001 6.2103176116943359e-001</leafValues></_>
        <_>
          <internalNodes>
            0 -1 39 -83894529 -69605921 -584004641 -1302701281
            -934331653 -22330582 1499004030 -26018266</internalNodes>
          <leafValues>
            -6.9892925024032593e-001 6.3491487503051758e-001</leafValues></_></weakClassifiers></_>
    <!-- stage 2 -->
    <_>
      <maxWeakCount>5</maxWeakCount>
      <stageThreshold>-1.0716567039489746e+000</stageThreshold>
      <weakClassifiers>
        <_>
          <internalNodes>
            0 -1 92 -168820865 1599600991 -149564929 2100819431
            -758122155 -73492977 -774912769 -25691281</internalNodes>
          <leafValues>
            -7.8214484453201294e-001 5.0349652767181396e-001</leafValues></_>
        <_>
          <internalNodes>
            0 -1 56 1073608573 -1679836201 824039935 -1085059601
            -1080034305 -4459557 -68419617 -1427356544</internalNodes>
          <leafValues>
            -7.6886445283889771e-001 4.9676203727722168e-001</leafValues></_>
        <_>
          <internalNodes>
            0 -1 25 -285225217 -29687810 -151697 -5046442 -17440785
            -1526792193 -18919553 -69468185</internalNodes>
          <leafValues>
            -5.8127886056900024e-001 7.1446192264556885e-001</leafValues></_>
        <_>
          <internalNodes>
            0 -1 86 -1182843649 2136185311 -826099203 -839065745
            -81797715 -1076166657 -85197890 707817232</internalNodes>
          <leafValues>
            -7.5766360759735107e-001 5.4604363441467285e-001</leafValues></_>
        <_>
          <internalNodes>
            0 -1 95 1465906999 -1417422634 -1383208781 -3941460
            -1074827273 -806360977 300905876 -570949642</internalNodes>
          <leafValues>
            -7.3297274112701416e-001 5.6085026264190674e-001</leafValues></_></weakClassifiers></_>
    <!-- stage 3 -->
    <_>
      <maxWeakCount>5</maxWeakCount>
      <stageThreshold>-1.1835026741027832e+000</stageThreshold>
      <weakClassifiers>
        <_>
          <internalNodes>
            0 -1 104 -8390817 1977050443 -2129538601 -67636649 -90964364
            -49946549 -1031021857 -17826945</internalNodes>
          <leafValues>
            -7.6141858100891113e-001 5.8611828088760376e-001</leafValues></_>
        <_>
          <internalNodes>
            0 -1 12 -271587545 705872246 -2062169088 -866125612
            1640448627 25214989 1360610080 -134744077</internalNodes>
          <leafValues>
            -7.4581992626190186e-001 5.2423417568206787e-001</leafValues></_>
        <_>
          <internalNodes>
            0 -1 36 -1374699589 -1442651174 -1526606835 -1119619795
            -1582564965 -813448533 -418391041 -851445257</internalNodes>
          <leafValues>
            -7.2955256700515747e-001 5.0945466756820679e-001</leafValues></_>
        <_>
          <internalNodes>
            0 -1 79 2122841087 492212572 -50242091 -2510546 -109188121
            -476149299 1353466068 -641741872</internalNodes>
          <leafValues>
            -7.0200312137603760e-001 5.1636391878128052e-001</leafValues></_>
        <_>
          <internalNodes>
            0 -1 75 -276953729 -76197001 -117255217 -568527521
            -139483536 -38551153 1381389717 -621808779</internalNodes>
          <leafValues>
            -6.9636982679367065e-001 5.1628428697586060e-001</leafValues></_></weakClassifiers></_>
    <!-- stage 4 -->
    <_>
      <maxWeakCount>5</maxWeakCount>
      <stageThreshold>-1.0941337347030640e+000</stageThreshold>
      <weakClassifiers>
        <_>
          <internalNodes>
            0 -1 108 -193 2136696191 -258488673 -588525445 -175315711
            -292302716 -239338500 -33554433</internalNodes>
          <leafValues>
            -7.5543481111526489e-001 5.3692114353179932e-001</leafValues></_>
        <_>
          <internalNodes>
            0 -1 14 -1577105 1112864207 -1479016978 -527508742
            1355248193 1081181567 -138282169 -193462409</internalNodes>
          <leafValues>
            -7.6307177543640137e-001 4.8890921473503113e-001</leafValues></_>
        <_>
          <internalNodes>
            0 -1 117 2111176703 -285296641 -1814180466 -430121473
            -134493697 -86187589 -24384717 -2000879619</internalNodes>
          <leafValues>
            -7.2072625160217285e-001 5.2839273214340210e-001</leafValues></_>
        <_>
          <internalNodes>
            0 -1 99 -11568257 -1345338919 -914073670 -302515234
            -119549097 -1160045585 -30510092 -541196865</internalNodes>
          <leafValues>
            -6.9025844335556030e-001 5.8494573831558228e-001</leafValues></_>
        <_>
          <internalNodes>
            0 -1 87 -280007337 -3976581 -653790817 -69242277 -380479088
            -546316033 2083449265 -42467587</internalNodes>
          <leafValues>
            -6.6574251651763916e-001 5.9429687261581421e-001</leafValues></_></weakClassifiers></_>
    <!-- stage 5 -->
    <_>
      <maxWeakCount>7</maxWeakCount>
      <stageThreshold>-1.5226962566375732e+000</stageThreshold>
      <weakClassifiers>
        <_>
          <internalNodes>
            0 -1 10 -327160065 -268240046 -800872562 -607921874
            1082647535 1351796738 -712644425 -169348129</internalNodes>
          <leafValues>
            -7.4427694082260132e-001 4.3867924809455872e-001</leafValues></_>
        <_>
          <internalNodes>
            0 -1 28 -455611250 -611237469 1287771027 -44593145
            -1056854545 -1349822151 -877098004 -46675521</internalNodes>
          <leafValues>
            -6.7396318912506104e-001 4.3482810258865356e-001</leafValues></_>
        <_>
          <internalNodes>
            0 -1 90 -610797645 493814163 -784255529 -548809778
            1658583735 -1958771445 1545454844 -838861601</internalNodes>
          <leafValues>
            -5.3136259317398071e-001 6.0082238912582397e-001</leafValues></_>
        <_>
          <internalNodes>
            0 -1 66 924794751 -2107169 1370875983 1054245598 -681871557
            1065877645 -70016027 784790516</internalNodes>
          <leafValues>
            -8.5287356376647949e-001 3.8887241482734680e-001</leafValues></_>
        <_>
          <internalNodes>
            0 -1 53 1586977913 -1155679115 -171489929 1067585943
            -1182249947 -1147509464 -23285826 -1442694598</internalNodes>
          <leafValues>
            -7.0746499300003052e-001 4.3231147527694702e-001</leafValues></_>
        <_>
          <internalNodes>
            0 -1 9 -442519617 -1431109990 -1748926502 -271858336
            474211069 1149683840 1980212633 -310381641</internalNodes>
          <leafValues>
            -6.9794601202011108e-001 4.5326101779937744e-001</leafValues></_>
        <_>
          <internalNodes>
            0 -1 3 -1756929626 -145375371 1165455711 -1054883
            -1387613206 2007714051 520734936 1343500356</internalNodes>
          <leafValues>
            -8.7169611454010010e-001 3.8484928011894226e-001</leafValues></_></weakClassifiers></_>
    <!-- stage 6 -->
    <_>
      <maxWeakCount>6</maxWeakCount>
      <stageThreshold>-9.0204441547393799e-001</stageThreshold>
      <weakClassifiers>
        <_>
          <internalNodes>
            0 -1 115 -71303753 2042338607 -2134802391 -13122909
            1536163827 -877952605 2091637136 -906232901</internalNodes>
          <leafValues>
            -7.3453319072723389e-001 4.0069687366485596e-001</leafValues></_>
        <_>
          <internalNodes>
            0 -1 54 -183248393 -984972969 -1627335681 -1132428897
            -116778788 -35874163 -74490372 -552067920</internalNodes>
          <leafValues>
            -7.3438400030136108e-001 3.8945016264915466e-001</leafValues></_>
        <_>
          <internalNodes>
            0 -1 17 -715404661 -42121467 1762034763 -1222445105
            1635929641 2135105563 -895223617 2132015991</internalNodes>
          <leafValues>
            -5.8875554800033569e-001 4.8998668789863586e-001</leafValues></_>
        <_>
          <internalNodes>
            0 -1 68 30913515 261873299 -1118763025 -153162337 24992095
            1000886873 199912181 788525740</internalNodes>
          <leafValues>
            -8.4959870576858521e-001 3.4843665361404419e-001</leafValues></_>
        <_>
          <internalNodes>
            0 -1 34 -834144265 -552367212 -1051603458 -948853422
            -819484426 -385809527 1246331899 -1916991038</internalNodes>
          <leafValues>
            -6.1709654331207275e-001 4.8871198296546936e-001</leafValues></_>
        <_>
          <internalNodes>
            0 -1 5 -959971361 -353120254 -2145029875 -317399799
            1106600591 302744144 -1685372061 45564082</internalNodes>
          <leafValues>
            -6.5508174896240234e-001 4.3777281045913696e-001</leafValues></_></weakClassifiers></_>
    <!-- stage 7 -->
    <_>
      <maxWeakCount>8</maxWeakCount>
      <stageThreshold>-1.2839714288711548e+000</stageThreshold>
      <weakClassifiers>
        <_>
          <internalNodes>
            0 -1 84 -2100369 2103824735 427921887 2104597849 -645342891
            -47210486 -118824193 -25953409</internalNodes>
          <leafValues>
            -7.8006428480148315e-001 2.3247233033180237e-001</leafValues></_>
        <_>
          <internalNodes>
            0 -1 27 2128084223 -616602473 1556663422 -1302318982
            -1467220273 -13664231 -955392037 -145239473</internalNodes>
          <leafValues>
            -6.5807527303695679e-001 3.8304507732391357e-001</leafValues></_>
        <_>
          <internalNodes>
            0 -1 49 871571439 -285744869 298324409 -23160325 1058763587
            -1376055 1519287269 -627153028</internalNodes>
          <leafValues>
            -7.3082536458969116e-001 3.7091591954231262e-001</leafValues></_>
        <_>
          <internalNodes>
            0 -1 32 -1901660162 1910403086 -718073485 -680135532
            -1045734721 -6716541 466745759 1317010421</internalNodes>
          <leafValues>
            -6.9355535507202148e-001 3.8936558365821838e-001</leafValues></_>
        <_>
          <internalNodes>
            0 -1 83 1423036924 516957279 -783995809 -1189160743
            -408581957 2131444024 -565204227 943739664</internalNodes>
          <leafValues>
            -7.6534551382064819e-001 3.7179231643676758e-001</leafValues></_>
        <_>
          <internalNodes>
            0 -1 113 -8394917 1596543599 -2109109901 719047002 -74712828
            -536100857 -365174690 1109916479</internalNodes>
          <leafValues>
            -6.3797724246978760e-001 4.6278116106987000e-001</leafValues></_>
        <_>
          <internalNodes>
            0 -1 70 -1679358383 -1088130855 -582939909 -1109355361
            699471037 -1146568657 967661754 -1147797448</internalNodes>
          <leafValues>
            -5.6518203020095825e-001 5.3442859649658203e-001</leafValues></_>
        <_>
          <internalNodes>
            0 -1 77 1006582783 -1151954606 1149354485 -79236176
            -1077432129 -342374737 -1316234825 1996096501</internalNodes>
          <leafValues>
            -7.7833956480026245e-001 3.6739781498908997e-001</leafValues></_></weakClassifiers></_>
    <!-- stage 8 -->
    <_>
      <maxWeakCount>9</maxWeakCount>
      <stageThreshold>-1.1503959894180298e+000</stageThreshold>
      <weakClassifiers>
        <_>
          <internalNodes>
            0 -1 57 -161482921 490176796 1963006333 2102516551
            -796857165 -1204233533 -662512977 -80479441</internalNodes>
          <leafValues>
            -6.8596881628036499e-001 3.2147094607353210e-001</leafValues></_>
        <_>
          <internalNodes>
            0 -1 102 -149433953 -1765097021 -1341103779 -648951533
            -1440683105 -1152863561 1158222045 432754879</internalNodes>
          <leafValues>
            -5.9588128328323364e-001 4.3471437692642212e-001</leafValues></_>
        <_>
          <internalNodes>
            0 -1 1 -674917426 -537242210 -754855425 -8653826 -1268865929
            -108439288 -748366862 -17493900</internalNodes>
          <leafValues>
            -6.1531972885131836e-001 4.2231935262680054e-001</leafValues></_>
        <_>
          <internalNodes>
            0 -1 11 -201326593 -880809025 -134217806 -810549258
            125270007 133693431 1442281463 -134219817</internalNodes>
          <leafValues>
            -4.8587632179260254e-001 6.1305737495422363e-001</leafValues></_>
        <_>
          <internalNodes>
            0 -1 38 -1161312513 -78266169 1075474643 -552148598
            -884905968 2072715649 303269920 -587539998</internalNodes>
          <leafValues>
            -6.3726758956909180e-001 4.2196851968765259e-001</leafValues></_>
        <_>
          <internalNodes>
            0 -1 88 -271627323 1360486733 -1048051041 -782540797
            1129249732 -619986933 -1928791564 -632368675</internalNodes>
          <leafValues>
            -6.0976564884185791e-001 4.2133435606956482e-001</leafValues></_>
        <_>
          <internalNodes>
            0 -1 59 -447004737 -1264773787 1128395130 1880678809
            -1459061965 -1165981675 -125045807 2137254778</internalNodes>
          <leafValues>
            -6.6160261631011963e-001 4.0205529332160950e-001</leafValues></_>
        <_>
          <internalNodes>
            0 -1 18 -18155905 -8699909 -268648450 867794879 1465866055
            1063197519 -1208002977 -680036773</internalNodes>
          <leafValues>
            -4.6589860320091248e-001 6.2029790878295898e-001</leafValues></_>
        <_>
          <internalNodes>
            0 -1 43 435360767 936841602 -686700581 730477533 -342229808
            -89177554 2107398876 -1196469459</internalNodes>
          <leafValues>
            -5.2749484777450562e-001 5.3100574016571045e-001</leafValues></_></weakClassifiers></_>
    <!-- stage 9 -->
    <_>
      <maxWeakCount>9</maxWeakCount>
      <stageThreshold>-1.4979950189590454e+000</stageThreshold>
      <weakClassifiers>
        <_>
          <internalNodes>
            0 -1 4 1364849919 -216676151 -1870588961 -1121856721
            -804155157 -1926725469 -845313137 -552600689</internalNodes>
          <leafValues>
            -5.8630394935607910e-001 5.7001972198486328e-001</leafValues></_>
        <_>
          <internalNodes>
            0 -1 114 -69207773 1336120279 436293807 -338692721
            1128909239 -1840315725 -863313676 -979383825</internalNodes>
          <leafValues>
            -5.6262278556823730e-001 4.5098608732223511e-001</leafValues></_>
        <_>
          <internalNodes>
            0 -1 111 1068874751 1541243166 560443710 903225520
            -1274357013 -1467235926 -545007141 79203140</internalNodes>
          <leafValues>
            -7.2180122137069702e-001 3.3129051327705383e-001</leafValues></_>
        <_>
          <internalNodes>
            0 -1 85 -227149899 2066929854 -699321892 -677998254
            -518403332 1058192007 2043150841 1569029375</internalNodes>
          <leafValues>
            -5.8796924352645874e-001 4.0163683891296387e-001</leafValues></_>
        <_>
          <internalNodes>
            0 -1 63 2010610681 2060533947 -1190931969 1050658045
            1076253608 -1953758565 -369109767 1270771628</internalNodes>
          <leafValues>
            -6.8276697397232056e-001 3.6769646406173706e-001</leafValues></_>
        <_>
          <internalNodes>
            0 -1 47 -339274257 -604031979 1493232211 1065300381
            297599897 -634466743 1655655103 -1349100677</internalNodes>
          <leafValues>
            -5.6548190116882324e-001 4.4801652431488037e-001</leafValues></_>
        <_>
          <internalNodes>
            0 -1 7 -52439049 251777283 -535801684 558356800 1905967038
            1125763480 1107355106 200276407</internalNodes>
          <leafValues>
            -7.2372180223464966e-001 3.2734557986259460e-001</leafValues></_>
        <_>
          <internalNodes>
            0 -1 42 2010976710 -1088733035 -782375981 -42511667
            1493384920 -292714 2073349535 138230020</internalNodes>
          <leafValues>
            -6.7636656761169434e-001 3.5513091087341309e-001</leafValues></_>
        <_>
          <internalNodes>
            0 -1 19 2005299174 -7137989 -1067372535 895201753 1921870581
            -273725128 1325896639 1062469615</internalNodes>
          <leafValues>
            -5.2162301540374756e-001 4.7405385971069336e-001</leafValues></_></weakClassifiers></_>
    <!-- stage 10 -->
    <_>
      <maxWeakCount>9</maxWeakCount>
      <stageThreshold>-1.2703452110290527e+000</stageThreshold>
      <weakClassifiers>
        <_>
          <internalNodes>
            0 -1 116 -16254025 -473712237 1459852659 -173099617
            333882303 -38829880 1909450229 -13841</internalNodes>
          <leafValues>
            -6.5438503026962280e-001 4.2134830355644226e-001</leafValues></_>
        <_>
          <internalNodes>
            0 -1 101 1004475255 -145505890 -1583908041 1511293417
            -1104459977 -1683258361 196068002 -285955604</internalNodes>
          <leafValues>
            -6.9834005832672119e-001 2.9046562314033508e-001</leafValues></_>
        <_>
          <internalNodes>
            0 -1 13 -150483641 1615843527 -788405541 -261894109
            1082267837 110722 -761864025 -177739305</internalNodes>
          <leafValues>
            -4.8868975043296814e-001 4.9051895737648010e-001</leafValues></_>
        <_>
          <internalNodes>
            0 -1 41 1999964989 -250398509 545397723 -1190559649
            1567143070 -36269929 1533787135 -1911812516</internalNodes>
          <leafValues>
            -6.4906287193298340e-001 3.7352490425109863e-001</leafValues></_>
        <_>
          <internalNodes>
            0 -1 22 -1051803228 -597159614 82034 1560695235 -1045761607
            -892747511 -1579693410 -354423370</internalNodes>
          <leafValues>
            -6.6540485620498657e-001 3.7847164273262024e-001</leafValues></_>
        <_>
          <internalNodes>
            0 -1 109 -40929433 -749874354 -2143041380 -918077029
            1930023408 -1878849403 -1878075224 -543166049</internalNodes>
          <leafValues>
            -5.7266199588775635e-001 4.3042820692062378e-001</leafValues></_>
        <_>
          <internalNodes>
            0 -1 21 1743716335 -16777355 -4098 -49154 -537528460
            -167936001 -134219786 -125081</internalNodes>
          <leafValues>
            -4.5940697193145752e-001 5.4255199432373047e-001</leafValues></_>
        <_>
          <internalNodes>
            0 -1 112 -4198629 1535082357 2138972139 1404567549 -1096
            2139045887 -150995218 -1067001989</internalNodes>
          <leafValues>
            -4.3796223402023315e-001 5.6203848123550415e-001</leafValues></_>
        <_>
          <internalNodes>
            0 -1 64 -424989321 200393175 277394655 -20997805 -215455681
            261917593 2072058580 2145907708</internalNodes>
          <leafValues>
            -6.3812375068664551e-001 3.8975179195404053e-001</leafValues></_></weakClassifiers></_>
    <!-- stage 11 -->
    <_>
      <maxWeakCount>9</maxWeakCount>
      <stageThreshold>-7.9473310708999634e-001</stageThreshold>
      <weakClassifiers>
        <_>
          <internalNodes>
            0 -1 97 -69207169 -671494049 159568095 1967384855
            -1608416531 -629036832 -527728389 -76811397</internalNodes>
          <leafValues>
            -6.3237595558166504e-001 3.4530386328697205e-001</leafValues></_>
        <_>
          <internalNodes>
            0 -1 110 -133174349 -1700278121 -2063481571 2131071387
            2049833663 -1106034680 -1983813447 1308608655</internalNodes>
          <leafValues>
            -5.0308680534362793e-001 4.3639531731605530e-001</leafValues></_>
        <_>
          <internalNodes>
            0 -1 61 398695421 -245819503 -652884489 -1357545063
            -232713490 42084384 2038892957 740429316</internalNodes>
          <leafValues>
            -6.7542427778244019e-001 3.3211708068847656e-001</leafValues></_>
        <_>
          <internalNodes>
            0 -1 89 -1189145249 -1471454760 1347867005 176849100
            -2138359221 9089794 1887625643 1601894876</internalNodes>
          <leafValues>
            -7.3186802864074707e-001 3.1253808736801147e-001</leafValues></_>
        <_>
          <internalNodes>
            0 -1 96 1076612303 1409520711 1191284764 -598087033
            -488520225 2014871562 -1073089078 1712522266</internalNodes>
          <leafValues>
            -6.1552715301513672e-001 3.6584135890007019e-001</leafValues></_>
        <_>
          <internalNodes>
            0 -1 65 -644753929 -1659858024 -347744804 -1956659054
            545269967 1535707339 415371496 -1443952542</internalNodes>
          <leafValues>
            -5.4566425085067749e-001 4.4998535513877869e-001</leafValues></_>
        <_>
          <internalNodes>
            0 -1 76 -1366327473 -120253127 -686450209 -804077298
            -1836326059 -121961927 227056337 1423768041</internalNodes>
          <leafValues>
            -6.9778984785079956e-001 3.4826549887657166e-001</leafValues></_>
        <_>
          <internalNodes>
            0 -1 46 880264415 -1605151862 -788303289 -455690874
            -1837955824 -48299510 -787309836 -554509775</internalNodes>
          <leafValues>
            -7.4414896965026855e-001 2.8941628336906433e-001</leafValues></_>
        <_>
          <internalNodes>
            0 -1 91 31374991 625251029 -250308353 969683844 185299195
            725287058 1233785055 476926126</internalNodes>
          <leafValues>
            -5.6217092275619507e-001 4.0821558237075806e-001</leafValues></_></weakClassifiers></_>
    <!-- stage 12 -->
    <_>
      <maxWeakCount>10</maxWeakCount>
      <stageThreshold>-1.4731081724166870e+000</stageThreshold>
      <weakClassifiers>
        <_>
          <internalNodes>
            0 -1 103 -744492169 2140442919 -1056591397 924019082
            -2063955209 -934559559 -1030336555 -557846277</internalNodes>
          <leafValues>
            -6.5933448076248169e-001 2.4018475413322449e-001</leafValues></_>
        <_>
          <internalNodes>
            0 -1 55 944782833 -1878785919 1091766533 306479109
            -2004123509 -343703537 -1381414739 -406528724</internalNodes>
          <leafValues>
            -7.9335308074951172e-001 2.2932416200637817e-001</leafValues></_>
        <_>
          <internalNodes>
            0 -1 24 -522326057 -301931694 822087940 -721317568
            1300961487 -1983217528 1879736991 1155256836</internalNodes>
          <leafValues>
            -6.8536698818206787e-001 3.0208155512809753e-001</leafValues></_>
        <_>
          <internalNodes>
            0 -1 81 395785920 -202342046 1351778519 -5917750 -1434250279
            701038994 -1868022881 -1412759160</internalNodes>
          <leafValues>
            -4.8672184348106384e-001 4.3420010805130005e-001</leafValues></_>
        <_>
          <internalNodes>
            0 -1 100 165670407 -1102593263 -1610464871 -653672446
            -1995793754 -1468006390 1133185084 -1671563121</internalNodes>
          <leafValues>
            -6.1095625162124634e-001 3.5334065556526184e-001</leafValues></_>
        <_>
          <internalNodes>
            0 -1 6 -548144413 -2147368697 1216364571 -929005564
            839057427 1376288777 218318369 867390483</internalNodes>
          <leafValues>
            -5.7057309150695801e-001 3.8766568899154663e-001</leafValues></_>
        <_>
          <internalNodes>
            0 -1 44 1224790217 1439813796 16896439 -1793998848
            1345384833 -1719086948 1904247202 318959406</internalNodes>
          <leafValues>
            -5.5676764249801636e-001 4.0989109873771667e-001</leafValues></_>
        <_>
          <internalNodes>
            0 -1 16 -520567594 -246693109 33583937 1480888452 -535608803
            -1870593503 111903649 855865107</internalNodes>
          <leafValues>
            -5.6889486312866211e-001 4.1798391938209534e-001</leafValues></_>
        <_>
          <internalNodes>
            0 -1 52 -1819926499 -779902974 1359138836 -787869694
            -1064982389 -503267318 -1040125207 2125632492</internalNodes>
          <leafValues>
            -6.8258047103881836e-001 3.4679436683654785e-001</leafValues></_>
        <_>
          <internalNodes>
            0 -1 33 1526948334 -1856941557 17063698 -1741408938
            -1710685266 -2012741496 -129844946 -562730414</internalNodes>
          <leafValues>
            -7.5264632701873779e-001 3.0211436748504639e-001</leafValues></_></weakClassifiers></_>
    <!-- stage 13 -->
    <_>
      <maxWeakCount>9</maxWeakCount>
      <stageThreshold>-9.7318810224533081e-001</stageThreshold>
      <weakClassifiers>
        <_>
          <internalNodes>
            0 -1 29 -73934921 -340288621 210046163 -145418824 -484726081
            -1414823544 2056581287 -5264662</internalNodes>
          <leafValues>
            -6.0100758075714111e-001 3.5474005341529846e-001</leafValues></_>
        <_>
          <internalNodes>
            0 -1 69 336090071 -795590378 -1995415073 -1654717183
            -2138996577 -359561076 -636448209 -1190117327</internalNodes>
          <leafValues>
            -5.2995300292968750e-001 3.6788028478622437e-001</leafValues></_>
        <_>
          <internalNodes>
            0 -1 15 -85995289 -767342334 -1507802614 1107427339 51108047
            805380097 580419791 342057731</internalNodes>
          <leafValues>
            -6.3372242450714111e-001 3.4490579366683960e-001</leafValues></_>
        <_>
          <internalNodes>
            0 -1 2 -753928620 2031125265 16908315 -551448430 620794761
            487592073 -636973669 180281531</internalNodes>
          <leafValues>
            -5.9153157472610474e-001 3.5219052433967590e-001</leafValues></_>
        <_>
          <internalNodes>
            0 -1 74 -1277272774 -1623949248 -532543337 -1021919232
            -519862465 -2013265885 -1341917162 404683772</internalNodes>
          <leafValues>
            -6.9656389951705933e-001 2.9050466418266296e-001</leafValues></_>
        <_>
          <internalNodes>
            0 -1 60 392771605 -1682304755 164023539 966463759 -251043645
            -28409341 -822071165 -1425929486</internalNodes>
          <leafValues>
            -5.8896660804748535e-001 3.5556632280349731e-001</leafValues></_>
        <_>
          <internalNodes>
            0 -1 73 467655736 453230658 1124270209 -1057898229
            1342425319 2097152138 1073982100 2075582592</internalNodes>
          <leafValues>
            -7.1441960334777832e-001 2.8931543231010437e-001</leafValues></_>
        <_>
          <internalNodes>
            0 -1 82 1342341303 1484787911 50483578 1833730575 -134119254
            -1375204973 -936772869 2155282</internalNodes>
          <leafValues>
            -6.5864193439483643e-001 3.2612654566764832e-001</leafValues></_>
        <_>
          <internalNodes>
            0 -1 107 -790641601 1447755793 8454536 2022377817 411738704
            696778762 -469704563 1178855547</internalNodes>
          <leafValues>
            -7.2833234071731567e-001 3.1861346960067749e-001</leafValues></_></weakClassifiers></_>
    <!-- stage 14 -->
    <_>
      <maxWeakCount>10</maxWeakCount>
      <stageThreshold>-4.1237851977348328e-001</stageThreshold>
      <weakClassifiers>
        <_>
          <internalNodes>
            0 -1 37 823210287 -2143091584 -2087714560 1279262792
            536879209 134217728 -1862137843 305039370</internalNodes>
          <leafValues>
            -5.6373935937881470e-001 5.3474318981170654e-001</leafValues></_>
        <_>
          <internalNodes>
            0 -1 20 -554738831 993746794 -16533 893337579 1610570151
            -276931593 1736209404 825651839</internalNodes>
          <leafValues>
            -4.2433777451515198e-001 5.8128637075424194e-001</leafValues></_>
        <_>
          <internalNodes>
            0 -1 40 -1878994474 -1006567408 268453898 1367605506
            -2147303326 128 -2012740958 1935706187</internalNodes>
          <leafValues>
            -7.3560070991516113e-001 3.8084882497787476e-001</leafValues></_>
        <_>
          <internalNodes>
            0 -1 26 -1606188916 -746487790 27 276873489 1073882178
            -1568372728 -2147450709 -679014607</internalNodes>
          <leafValues>
            -5.2373611927032471e-001 5.1321566104888916e-001</leafValues></_>
        <_>
          <internalNodes>
            0 -1 106 -229605173 276824064 65553 -1862250494 1342212281
            131074 -1879021398 285819435</internalNodes>
          <leafValues>
            -4.5311823487281799e-001 5.8621829748153687e-001</leafValues></_>
        <_>
          <internalNodes>
            0 -1 78 -805207785 -2143158271 541065300 -1065320448
            -1610579838 9502720 67117124 -889027927</internalNodes>
          <leafValues>
            -6.8370813131332397e-001 4.1728875041007996e-001</leafValues></_>
        <_>
          <internalNodes>
            0 -1 35 2141323191 -659794 2147483391 -1052690 -276959419
            1879015422 -1904243059 -953791331</internalNodes>
          <leafValues>
            -4.5047709345817566e-001 6.1444735527038574e-001</leafValues></_>
        <_>
          <internalNodes>
            0 -1 8 -1072320102 -721371136 1207959808 -2063531768 1618059
            -1468006272 2015363723 1486823554</internalNodes>
          <leafValues>
            -4.9476757645606995e-001 5.6783956289291382e-001</leafValues></_>
        <_>
          <internalNodes>
            0 -1 72 318776795 -1853617910 272697621 -1073671927
            -2147475445 268435466 -1744780799 979026440</internalNodes>
          <leafValues>
            -8.1590151786804199e-001 3.5850051045417786e-001</leafValues></_>
        <_>
          <internalNodes>
            0 -1 71 9607240 268435456 4121 -1718812272 537395363
            -2004844544 134242365 -1904082812</internalNodes>
          <leafValues>
            -6.2576895952224731e-001 4.6529725193977356e-001</leafValues></_></weakClassifiers></_>
    <!-- stage 15 -->
    <_>
      <maxWeakCount>5</maxWeakCount>
      <stageThreshold>7.3270803689956665e-001</stageThreshold>
      <weakClassifiers>
        <_>
          <internalNodes>
            0 -1 94 1207901736 2122284858 -16777345 2130706302
            -134777004 2130706560 -545260204 1154807669</internalNodes>
          <leafValues>
            -8.3333331346511841e-001 8.9140272140502930e-001</leafValues></_>
        <_>
          <internalNodes>
            0 -1 51 2126491489 2130608124 -131 759131823 805273425
            -1342177281 1342131326 77595728</internalNodes>
          <leafValues>
            -4.8068234324455261e-001 8.3949476480484009e-001</leafValues></_>
        <_>
          <internalNodes>
            0 -1 45 4308994 285212672 16 -788529152 16392 33587200 32896
            1082196128</internalNodes>
          <leafValues>
            -7.1431231498718262e-001 7.4844515323638916e-001</leafValues></_>
        <_>
          <internalNodes>
            0 -1 20 1592728128 724295546 -82328 826228458 -536913489
            1735809911 1736242036 540430974</internalNodes>
          <leafValues>
            -6.7661136388778687e-001 7.9155588150024414e-001</leafValues></_>
        <_>
          <internalNodes>
            0 -1 58 -1040187324 1073741824 16777227 1073741832 134217896
            256 -2113896432 -2122317816</internalNodes>
          <leafValues>
            -7.7399748563766479e-001 6.4930301904678345e-001</leafValues></_></weakClassifiers></_>
    <!-- stage 16 -->
    <_>
      <maxWeakCount>2</maxWeakCount>
      <stageThreshold>1.9309230148792267e-001</stageThreshold>
      <weakClassifiers>
        <_>
          <internalNodes>
            0 -1 80 15654946 247070720 67092468 256 2 230604736
            1828529220 208690500</internalNodes>
          <leafValues>
            -5.5555558204650879e-001 1.</leafValues></_>
        <_>
          <internalNodes>
            0 -1 105 540672 -2147483648 0 0 0 268435456 128 2048</internalNodes>
          <leafValues>
            -8.0690771341323853e-001 9.9631744623184204e-001</leafValues></_></weakClassifiers></_>
    <!-- stage 17 -->
    <_>
      <maxWeakCount>1</maxWeakCount>
      <stageThreshold>1.</stageThreshold>
      <weakClassifiers>
        <_>
          <internalNodes>
            0 -1 0 0 0 0 256 0 0 0 0</internalNodes>
          <leafValues>
            -1. 1.</leafValues></_></weakClassifiers></_></stages>
  <features>
    <_>
      <rect>
        0 0 1 2</rect></_>
    <_>
      <rect>
        0 0 2 1</rect></_>
    <_>
      <rect>
        0 0 4 4</rect></_>
    <_>
      <rect>
        0 0 6 1</rect></_>
    <_>
      <rect>
        0 0 13 2</rect></_>
    <_>
      <rect>
        0 1 1 5</rect></_>
    <_>
      <rect>
        0 2 1 6</rect></_>
    <_>
      <rect>
        0 4 5 2</rect></_>
    <_>
      <rect>
        0 5 2 4</rect></_>
    <_>
      <rect>
        0 9 3 4</rect></_>
    <_>
      <rect>
        0 10 2 6</rect></_>
    <_>
      <rect>
        0 12 1 2</rect></_>
    <_>
      <rect>
        0 14 1 2</rect></_>
    <_>
      <rect>
        0 15 1 3</rect></_>
    <_>
      <rect>
        0 19 1 2</rect></_>
    <_>
      <rect>
        0 19 2 4</rect></_>
    <_>
      <rect>
        0 22 1 6</rect></_>
    <_>
      <rect>
        0 25 3 4</rect></_>
    <_>
      <rect>
        0 28 1 4</rect></_>
    <_>
      <rect>
        0 28 3 4</rect></_>
    <_>
      <rect>
        0 37 5 1</rect></_>
    <_>
      <rect>
        1 0 1 1</rect></_>
    <_>
      <rect>
        1 1 7 5</rect></_>
    <_>
      <rect>
        1 7 4 3</rect></_>
    <_>
      <rect>
        1 9 2 3</rect></_>
    <_>
      <rect>
        1 10 3 8</rect></_>
    <_>
      <rect>
        1 24 1 2</rect></_>
    <_>
      <rect>
        1 26 4 3</rect></_>
    <_>
      <rect>
        2 2 11 3</rect></_>
    <_>
      <rect>
        2 10 1 1</rect></_>
    <_>
      <rect>
        3 0 3 1</rect></_>
    <_>
      <rect>
        3 0 7 2</rect></_>
    <_>
      <rect>
        3 5 2 4</rect></_>
    <_>
      <rect>
        3 28 7 3</rect></_>
    <_>
      <rect>
        4 0 7 3</rect></_>
    <_>
      <rect>
        4 0 9 2</rect></_>
    <_>
      <rect>
        4 4 4 4</rect></_>
    <_>
      <rect>
        4 9 10 7</rect></_>
    <_>
      <rect>
        4 18 4 6</rect></_>
    <_>
      <rect>
        4 27 3 3</rect></_>
    <_>
      <rect>
        4 30 12 3</rect></_>
    <_>
      <rect>
        5 0 2 1</rect></_>
    <_>
      <rect>
        5 0 3 1</rect></_>
    <_>
      <rect>
        5 34 3 2</rect></_>
    <_>
      <rect>
        6 0 11 3</rect></_>
    <_>
      <rect>
        6 2 8 2</rect></_>
    <_>
      <rect>
        6 24 5 4</rect></_>
    <_>
      <rect>
        6 31 1 2</rect></_>
    <_>
      <rect>
        7 0 11 2</rect></_>
    <_>
      <rect>
        7 16 7 5</rect></_>
    <_>
      <rect>
        8 21 4 6</rect></_>
    <_>
      <rect>
        9 0 3 1</rect></_>
    <_>
      <rect>
        9 5 9 10</rect></_>
    <_>
      <rect>
        9 34 4 2</rect></_>
    <_>
      <rect>
        10 32 5 2</rect></_>
    <_>
      <rect>
        12 3 5 7</rect></_>
    <_>
      <rect>
        13 0 1 1</rect></_>
    <_>
      <rect>
        13 1 9 3</rect></_>
    <_>
      <rect>
        13 4 7 5</rect></_>
    <_>
      <rect>
        13 22 7 3</rect></_>
    <_>
      <rect>
        13 37 1 1</rect></_>
    <_>
      <rect>
        14 0 4 1</rect></_>
    <_>
      <rect>
        14 9 3 4</rect></_>
    <_>
      <rect>
        14 17 2 3</rect></_>
    <_>
      <rect>
        14 30 4 1</rect></_>
    <_>
      <rect>
        14 34 7 2</rect></_>
    <_>
      <rect>
        15 13 5 5</rect></_>
    <_>
      <rect>
        16 0 4 1</rect></_>
    <_>
      <rect>
        16 19 3 1</rect></_>
    <_>
      <rect>
        17 0 5 1</rect></_>
    <_>
      <rect>
        17 37 3 1</rect></_>
    <_>
      <rect>
        17 37 5 1</rect></_>
    <_>
      <rect>
        19 18 2 1</rect></_>
    <_>
      <rect>
        19 18 2 3</rect></_>
    <_>
      <rect>
        19 22 3 4</rect></_>
    <_>
      <rect>
        20 4 4 2</rect></_>
    <_>
      <rect>
        20 6 4 2</rect></_>
    <_>
      <rect>
        20 16 1 2</rect></_>
    <_>
      <rect>
        21 14 6 7</rect></_>
    <_>
      <rect>
        21 32 5 2</rect></_>
    <_>
      <rect>
        21 33 5 2</rect></_>
    <_>
      <rect>
        21 37 2 1</rect></_>
    <_>
      <rect>
        22 0 6 1</rect></_>
    <_>
      <rect>
        22 0 6 2</rect></_>
    <_>
      <rect>
        22 3 5 2</rect></_>
    <_>
      <rect>
        22 28 6 4</rect></_>
    <_>
      <rect>
        24 0 3 1</rect></_>
    <_>
      <rect>
        24 4 3 3</rect></_>
    <_>
      <rect>
        25 5 3 4</rect></_>
    <_>
      <rect>
        25 20 2 4</rect></_>
    <_>
      <rect>
        25 26 5 4</rect></_>
    <_>
      <rect>
        25 37 3 1</rect></_>
    <_>
      <rect>
        26 4 4 3</rect></_>
    <_>
      <rect>
        26 19 4 7</rect></_>
    <_>
      <rect>
        27 7 4 4</rect></_>
    <_>
      <rect>
        27 25 4 3</rect></_>
    <_>
      <rect>
        28 0 4 3</rect></_>
    <_>
      <rect>
        28 3 3 3</rect></_>
    <_>
      <rect>
        28 10 4 8</rect></_>
    <_>
      <rect>
        28 18 4 4</rect></_>
    <_>
      <rect>
        28 21 4 5</rect></_>
    <_>
      <rect>
        28 25 1 2</rect></_>
    <_>
      <rect>
        28 28 4 4</rect></_>
    <_>
      <rect>
        29 32 2 1</rect></_>
    <_>
      <rect>
        30 7 3 3</rect></_>
    <_>
      <rect>
        30 15 3 8</rect></_>
    <_>
      <rect>
        30 34 3 2</rect></_>
    <_>
      <rect>
        31 7 3 3</rect></_>
    <_>
      <rect>
        31 8 3 5</rect></_>
    <_>
      <rect>
        31 12 3 6</rect></_>
    <_>
      <rect>
        31 25 3 4</rect></_>
    <_>
      <rect>
        32 0 2 1</rect></_>
    <_>
      <rect>
        34 6 2 4</rect></_>
    <_>
      <rect>
        34 9 2 4</rect></_>
    <_>
      <rect>
        34 19 2 3</rect></_>
    <_>
      <rect>
        34 20 2 4</rect></_>
    <_>
      <rect>
        35 26 1 1</rect></_>
    <_>
      <rect>
        37 0 1 1</rect></_></features></cascade>
</opencv_storage>
